{
  "classifier": {
    "init_log_odds": -2.0153564324747664,
    "learning_rate": 0.04,
    "trees": [
      {
        "children_left": [
          1,
          2,
          -1,
          -1,
          5,
          -1,
          -1
        ],
        "children_right": [
          4,
          3,
          -1,
          -1,
          6,
          -1,
          -1
        ],
        "feature": [
          13,
          1,
          -2,
          -2,
          11,
          -2,
          -2
        ],
        "threshold": [
          0.18466537445783615,
          0.774820476770401,
          -2.0,
          -2.0,
          -1.6671335697174072,
          -2.0,
          -2.0
        ],
        "value": [
          9.754155816388278e-16,
          -0.023989463372156603,
          -0.4939418829237491,
          0.4399095197332668,
          0.27108388683886464,
          3.4386237109998112,
          0.7078803187610028
        ]
      },
      {
        "children_left": [
          1,
          2,
          -1,
          -1,
          5,
          -1,
          -1
        ],
        "children_right": [
          4,
          3,
          -1,
          -1,
          6,
          -1,
          -1
        ],
        "feature": [
          13,
          6,
          -2,
          -2,
          11,
          -2,
          -2
        ],
        "threshold": [
          0.18466537445783615,
          1.9520624279975891,
          -2.0,
          -2.0,
          -1.6671335697174072,
          -2.0,
          -2.0
        ],
        "value": [
          -5.767552184433582e-05,
          -0.023044447525884013,
          0.0831432514577046,
          -0.7908646087230321,
          0.25969567552502953,
          2.9708420303521144,
          0.6647612924014628
        ]
      },
      {
        "children_left": [
          1,
          2,
          -1,
          -1,
          5,
          -1,
          -1
        ],
        "children_right": [
          4,
          3,
          -1,
          -1,
          6,
          -1,
          -1
        ],
        "feature": [
          13,
          1,
          -2,
          -2,
          11,
          -2,
          -2
        ],
        "threshold": [
          0.18466537445783615,
          0.774820476770401,
          -2.0,
          -2.0,
          -1.6671335697174072,
          -2.0,
          -2.0
        ],
        "value": [
          -0.00010342893560843557,
          -0.022136786376222132,
          -0.4734741885145337,
          0.4152136301270326,
          0.2488762202733299,
          2.6130977426796385,
          0.6252057715054871
        ]
      },
      {
        "children_left": [
          1,
          2,
          -1,
          -1,
          5,
          -1,
          -1
        ],
        "children_right": [
          4,
          3,
          -1,
          -1,
          6,
          -1,
          -1
        ],
        "feature": [
          13,
          6,
          -2,
          -2,
          11,
          -2,
          -2
        ],
        "threshold": [
          0.07478116825222969,
          1.9545453190803528,
          -2.0,
          -2.0,
          -1.6671335697174072,
          -2.0,
          -2.0
        ],
        "value": [
          -0.00013973302992284012,
          -0.02616139783969076,
          0.026744845983781157,
          -0.7773227801421897,
          0.1939880506355439,
          2.2772558748325893,
          0.37066535003139256
        ]
      },
      {
        "children_left": [
          1,
          2,
          -1,
          -1,
          5,
          -1,
          -1
        ],
        "children_right": [
          4,
          3,
          -1,
          -1,
          6,
          -1,
          -1
        ],
        "feature": [
          13,
          6,
          -2,
          -2,
          11,
          -2,
          -2
        ],
        "threshold": [
          0.18466537445783615,
          1.9520624279975891,
          -2.0,
          -2.0,
          -1.6671335697174072,
          -2.0,
          -2.0
        ],
        "value": [
          -0.00017326139051089054,
          -0.020475811644628784,
          0.07978541857967654,
          -0.7593175695326154,
          0.22924805371968335,
          2.1041019254573294,
          0.5675843214045606
        ]
      },
      {
        "children_left": [
          1,
          2,
          -1,
          -1,
          5,
          -1,
          -1
        ],
        "children_right": [
          4,
          3,
          -1,
          -1,
          6,
          -1,
          -1
        ],
        "feature": [
          13,
          6,
          -2,
          -2,
          11,
          -2,
          -2
        ],
        "threshold": [
          0.07478116825222969,
          2.015706181526184,
          -2.0,
          -2.0,
          -1.6671335697174072,
          -2.0,
          -2.0
        ],
        "value": [
          -0.00019723814700499994,
          -0.02428126710493607,
          0.0027781244458562645,
          -0.7961829997298915,
          0.17947532306368566,
          1.892752606124855,
          0.33625889340131804
        ]
      },
      {
        "children_left": [
          1,
          2,
          -1,
          -1,
          5,
          -1,
          -1
        ],
        "children_right": [
          4,
          3,
          -1,
          -1,
          6,
          -1,
          -1
        ],
        "feature": [
          13,
          6,
          -2,
          -2,
          11,
          -2,
          -2
        ],
        "threshold": [
          0.025119595229625702,
          2.015706181526184,
          -2.0,
          -2.0,
          -1.5914753675460815,
          -2.0,
          -2.0
        ],
        "value": [
          -0.00021967640286312657,
          -0.02895367890464426,
          -0.05832375729241186,
          -0.7978576184198273,
          0.1387871413042467,
          1.5709784581928978,
          0.2628484235714998
        ]
      },
      {
        "children_left": [
          1,
          2,
          -1,
          -1,
          5,
          -1,
          -1
        ],
        "children_right": [
          4,
          3,
          -1,
          -1,
          6,
          -1,
          -1
        ],
        "feature": [
          13,
          15,
          -2,
          -2,
          11,
          -2,
          -2
        ],
        "threshold": [
          0.07478116825222969,
          1.7057570815086365,
          -2.0,
          -2.0,
          -1.6671335697174072,
          -2.0,
          -2.0
        ],
        "value": [
          -0.00023972398448052342,
          -0.022482708336532632,
          0.029068956862211916,
          -0.7123467652235885,
          0.16569820834747961,
          1.6026471569384835,
          0.30343653608191623
        ]
      },
      {
        "children_left": [
          1,
          2,
          -1,
          -1,
          5,
          -1,
          -1
        ],
        "children_right": [
          4,
          3,
          -1,
          -1,
          6,
          -1,
          -1
        ],
        "feature": [
          13,
          2,
          -2,
          -2,
          11,
          -2,
          -2
        ],
        "threshold": [
          0.025119595229625702,
          0.27725671231746674,
          -2.0,
          -2.0,
          -1.5914753675460815,
          -2.0,
          -2.0
        ],
        "value": [
          -0.0002541250660494531,
          -0.026856320008319286,
          -0.9707250114439202,
          -0.14264061718613735,
          0.12843962244510207,
          1.3541725783517573,
          0.2408405655367866
        ]
      },
      {
        "children_left": [
          1,
          2,
          -1,
          -1,
          5,
          -1,
          -1
        ],
        "children_right": [
          4,
          3,
          -1,
          -1,
          6,
          -1,
          -1
        ],
        "feature": [
          13,
          1,
          -2,
          -2,
          3,
          -2,
          -2
        ],
        "threshold": [
          0.18466537445783615,
          0.774820476770401,
          -2.0,
          -2.0,
          0.015178571920841932,
          -2.0,
          -2.0
        ],
        "value": [
          -0.00026605542536418437,
          -0.01699222899221212,
          -0.41251915841668124,
          0.3547678131535193,
          0.18874176321994407,
          1.402159260756113,
          -0.2972108237760826
        ]
      },
      {
        "children_left": [
          1,
          2,
          -1,
          -1,
          5,
          -1,
          -1
        ],
        "children_right": [
          4,
          3,
          -1,
          -1,
          6,
          -1,
          -1
        ],
        "feature": [
          13,
          2,
          -2,
          -2,
          11,
          -2,
          -2
        ],
        "threshold": [
          0.025119595229625702,
          0.27725671231746674,
          -2.0,
          -2.0,
          -1.5914753675460815,
          -2.0,
          -2.0
        ],
        "value": [
          -0.00027437990661545035,
          -0.024889534838824296,
          -0.9591911288184398,
          -0.12870403847092185,
          0.11880664106431389,
          1.1886983402667555,
          0.21106822004430972
        ]
      },
      {
        "children_left": [
          1,
          2,
          -1,
          -1,
          5,
          -1,
          -1
        ],
        "children_right": [
          4,
          3,
          -1,
          -1,
          6,
          -1,
          -1
        ],
        "feature": [
          13,
          6,
          -2,
          -2,
          11,
          -2,
          -2
        ],
        "threshold": [
          0.08166636899113655,
          1.926027774810791,
          -2.0,
          -2.0,
          -1.6671335697174072,
          -2.0,
          -2.0
        ],
        "value": [
          -0.00028185328980585785,
          -0.018937620795560516,
          0.05811499331297302,
          -0.6966483818843271,
          0.1448531386930624,
          1.240808650739226,
          0.2241651265344236
        ]
      },
      {
        "children_left": [
          1,
          2,
          -1,
          -1,
          5,
          -1,
          -1
        ],
        "children_right": [
          4,
          3,
          -1,
          -1,
          6,
          -1,
          -1
        ],
        "feature": [
          13,
          8,
          -2,
          -2,
          11,
          -2,
          -2
        ],
        "threshold": [
          0.025119595229625702,
          0.7227433025836945,
          -2.0,
          -2.0,
          -1.5914753675460815,
          -2.0,
          -2.0
        ],
        "value": [
          -0.0002878738232280457,
          -0.023113470386632768,
          -0.1147436649864076,
          -0.9499560974779717,
          0.11013577983756523,
          1.048796637971791,
          0.197305160178019
        ]
      },
      {
        "children_left": [
          1,
          2,
          -1,
          -1,
          5,
          -1,
          -1
        ],
        "children_right": [
          4,
          3,
          -1,
          -1,
          6,
          -1,
          -1
        ],
        "feature": [
          1,
          9,
          -2,
          -2,
          1,
          -2,
          -2
        ],
        "threshold": [
          0.9737855195999146,
          0.45312991738319397,
          -2.0,
          -2.0,
          1.6479774117469788,
          -2.0,
          -2.0
        ],
        "value": [
          -0.00029201036022082554,
          -0.02932745140812805,
          -0.45606594986602295,
          0.31874385784170584,
          0.08078040239508813,
          0.945499273851566,
          -0.22151507765805759
        ]
      },
      {
        "children_left": [
          1,
          2,
          -1,
          -1,
          5,
          -1,
          -1
        ],
        "children_right": [
          4,
          3,
          -1,
          -1,
          6,
          -1,
          -1
        ],
        "feature": [
          13,
          2,
          -2,
          -2,
          3,
          -2,
          -2
        ],
        "threshold": [
          0.17221702635288239,
          0.881955087184906,
          -2.0,
          -2.0,
          0.015178571920841932,
          -2.0,
          -2.0
        ],
        "value": [
          -0.0003003206186679197,
          -0.014578423519334556,
          0.12547705028380862,
          -0.5861137822802523,
          0.15439320844120327,
          1.071768723419604,
          -0.3979576731172866
        ]
      },
      {
        "children_left": [
          1,
          2,
          -1,
          -1,
          5,
          -1,
          -1
        ],
        "children_right": [
          4,
          3,
          -1,
          -1,
          6,
          -1,
          -1
        ],
        "feature": [
          13,
          8,
          -2,
          -2,
          11,
          -2,
          -2
        ],
        "threshold": [
          0.021432358771562576,
          0.7227433025836945,
          -2.0,
          -2.0,
          -1.5914753675460815,
          -2.0,
          -2.0
        ],
        "value": [
          -0.0003024074540667758,
          -0.021608403626312805,
          -0.107188575203182,
          -0.9356379733002718,
          0.09629971022120008,
          0.9123188217561405,
          0.1300020438226525
        ]
      },
      {
        "children_left": [
          1,
          2,
          -1,
          -1,
          5,
          -1,
          -1
        ],
        "children_right": [
          4,
          3,
          -1,
          -1,
          6,
          -1,
          -1
        ],
        "feature": [
          1,
          6,
          -2,
          -2,
          0,
          -2,
          -2
        ],
        "threshold": [
          0.774820476770401,
          2.015706181526184,
          -2.0,
          -2.0,
          45.5,
          -2.0,
          -2.0
        ],
        "value": [
          -0.0003035218365043829,
          -0.03180230434060798,
          -0.12130189915700576,
          -0.7470617663733052,
          0.06163816585845802,
          0.24566327484421094,
          1.0012497216361018
        ]
      },
      {
        "children_left": [
          1,
          2,
          -1,
          -1,
          5,
          -1,
          -1
        ],
        "children_right": [
          4,
          3,
          -1,
          -1,
          6,
          -1,
          -1
        ],
        "feature": [
          1,
          4,
          -2,
          -2,
          0,
          -2,
          -2
        ],
        "threshold": [
          0.774820476770401,
          2.5900756099872524e-06,
          -2.0,
          -2.0,
          45.5,
          -2.0,
          -2.0
        ],
        "value": [
          -0.00030649204464313316,
          -0.030543036753760956,
          -1.0442355701532056,
          -0.25052415884030876,
          0.05915303179894831,
          0.23415898251600126,
          0.9412512873532577
        ]
      },
      {
        "children_left": [
          1,
          2,
          -1,
          -1,
          5,
          -1,
          -1
        ],
        "children_right": [
          4,
          3,
          -1,
          -1,
          6,
          -1,
          -1
        ],
        "feature": [
          1,
          9,
          -2,
          -2,
          1,
          -2,
          -2
        ],
        "threshold": [
          0.9737855195999146,
          0.45312991738319397,
          -2.0,
          -2.0,
          1.6479774117469788,
          -2.0,
          -2.0
        ],
        "value": [
          -0.0003070992604873731,
          -0.02467959180878935,
          -0.41564305478378527,
          0.320468299277134,
          0.06774548421814014,
          0.7780709210866599,
          -0.27321409239415867
        ]
      },
      {
        "children_left": [
          1,
          2,
          -1,
          -1,
          5,
          -1,
          -1
        ],
        "children_right": [
          4,
          3,
          -1,
          -1,
          6,
          -1,
          -1
        ],
        "feature": [
          3,
          13,
          -2,
          -2,
          11,
          -2,
          -2
        ],
        "threshold": [
          0.004464285797439516,
          0.06294086948037148,
          -2.0,
          -2.0,
          -10.581326961517334,
          -2.0,
          -2.0
        ],
        "value": [
          -0.00030972403998448083,
          0.0970138887553214,
          0.21987618422360022,
          0.8269851260415378,
          -0.016509513548779945,
          1.685446186213657,
          -0.22219462323192166
        ]
      },
      {
        "children_left": [
          1,
          2,
          -1,
          -1,
          5,
          -1,
          -1
        ],
        "children_right": [
          4,
          3,
          -1,
          -1,
          6,
          -1,
          -1
        ],
        "feature": [
          13,
          8,
          -2,
          -2,
          11,
          -2,
          -2
        ],
        "threshold": [
          0.007481835782527924,
          0.7470773458480835,
          -2.0,
          -2.0,
          -1.5914753675460815,
          -2.0,
          -2.0
        ],
        "value": [
          -0.0003068391352453256,
          -0.022878671476751634,
          -0.14189399653627113,
          -0.987212341850371,
          0.06515499600182305,
          0.680000473027341,
          0.08545018188298513
        ]
      },
      {
        "children_left": [
          1,
          2,
          -1,
          -1,
          5,
          -1,
          -1
        ],
        "children_right": [
          4,
          3,
          -1,
          -1,
          6,
          -1,
          -1
        ],
        "feature": [
          1,
          6,
          -2,
          -2,
          0,
          -2,
          -2
        ],
        "threshold": [
          0.774820476770401,
          2.015706181526184,
          -2.0,
          -2.0,
          45.5,
          -2.0,
          -2.0
        ],
        "value": [
          -0.0003055107210299611,
          -0.026798805535096587,
          -0.07465781055774234,
          -0.7196895671890542,
          0.05179299159948211,
          0.19761607315362176,
          0.7912024025694532
        ]
      },
      {
        "children_left": [
          1,
          2,
          -1,
          -1,
          5,
          -1,
          -1
        ],
        "children_right": [
          4,
          3,
          -1,
          -1,
          6,
          -1,
          -1
        ],
        "feature": [
          1,
          6,
          -2,
          -2,
          0,
          -2,
          -2
        ],
        "threshold": [
          0.774820476770401,
          2.084746837615967,
          -2.0,
          -2.0,
          45.5,
          -2.0,
          -2.0
        ],
        "value": [
          -0.00030467221801862,
          -0.025737969357608935,
          -0.10342307568330947,
          -0.7698370221153175,
          0.04970936715852739,
          0.18864324474175354,
          0.7483618262600217
        ]
      },
      {
        "children_left": [
          1,
          2,
          -1,
          -1,
          5,
          -1,
          -1
        ],
        "children_right": [
          4,
          3,
          -1,
          -1,
          6,
          -1,
          -1
        ],
        "feature": [
          13,
          2,
          -2,
          -2,
          11,
          -2,
          -2
        ],
        "threshold": [
          0.007481835782527924,
          0.2529226392507553,
          -2.0,
          -2.0,
          -1.5914753675460815,
          -2.0,
          -2.0
        ],
        "value": [
          -0.0003030474756809401,
          -0.02050155189736705,
          -0.9793544254452776,
          -0.11933405587258916,
          0.05827576643994639,
          0.5953564761513676,
          0.06519227317885917
        ]
      },
      {
        "children_left": [
          1,
          2,
          -1,
          -1,
          5,
          -1,
          -1
        ],
        "children_right": [
          4,
          3,
          -1,
          -1,
          6,
          -1,
          -1
        ],
        "feature": [
          3,
          12,
          -2,
          -2,
          2,
          -2,
          -2
        ],
        "threshold": [
          0.004464285797439516,
          0.10995335504412651,
          -2.0,
          -2.0,
          0.3107106387615204,
          -2.0,
          -2.0
        ],
        "value": [
          -0.0003003011355830457,
          0.08149297611669724,
          0.6210327664586424,
          -0.5085423929570084,
          -0.0139150225445423,
          -0.7953472254662158,
          -0.006051611418820337
        ]
      },
      {
        "children_left": [
          1,
          2,
          -1,
          -1,
          5,
          -1,
          -1
        ],
        "children_right": [
          4,
          3,
          -1,
          -1,
          6,
          -1,
          -1
        ],
        "feature": [
          8,
          9,
          -2,
          -2,
          2,
          -2,
          -2
        ],
        "threshold": [
          0.18185414373874664,
          0.45314641296863556,
          -2.0,
          -2.0,
          0.2941658943891525,
          -2.0,
          -2.0
        ],
        "value": [
          -0.0002972810808664651,
          -0.03497349762621642,
          -0.5196074116005884,
          0.269744667053897,
          0.03149423583238073,
          -0.3362657345317089,
          0.6174271712950498
        ]
      },
      {
        "children_left": [
          1,
          2,
          -1,
          -1,
          5,
          -1,
          -1
        ],
        "children_right": [
          4,
          3,
          -1,
          -1,
          6,
          -1,
          -1
        ],
        "feature": [
          2,
          8,
          -2,
          -2,
          9,
          -2,
          -2
        ],
        "threshold": [
          0.8181458711624146,
          0.7792821228504181,
          -2.0,
          -2.0,
          0.45314641296863556,
          -2.0,
          -2.0
        ],
        "value": [
          -0.0003010883641162382,
          0.0302163944185095,
          0.49065119925595374,
          -0.5740512868414136,
          -0.033587667431011964,
          -0.5076402211887345,
          0.25673474453987144
        ]
      },
      {
        "children_left": [
          1,
          2,
          -1,
          -1,
          5,
          -1,
          -1
        ],
        "children_right": [
          4,
          3,
          -1,
          -1,
          6,
          -1,
          -1
        ],
        "feature": [
          13,
          2,
          -2,
          -2,
          12,
          -2,
          -2
        ],
        "threshold": [
          0.18730272352695465,
          0.2949669063091278,
          -2.0,
          -2.0,
          0.0029864819953218102,
          -2.0,
          -2.0
        ],
        "value": [
          -0.000303451523782951,
          -0.009582326408482859,
          -0.7521495352432822,
          0.02326636137320472,
          0.10554019077141756,
          -0.44995819088816696,
          0.6912886054230543
        ]
      },
      {
        "children_left": [
          1,
          2,
          -1,
          -1,
          5,
          -1,
          -1
        ],
        "children_right": [
          4,
          3,
          -1,
          -1,
          6,
          -1,
          -1
        ],
        "feature": [
          8,
          9,
          -2,
          -2,
          2,
          -2,
          -2
        ],
        "threshold": [
          0.18185414373874664,
          0.45314641296863556,
          -2.0,
          -2.0,
          0.2941658943891525,
          -2.0,
          -2.0
        ],
        "value": [
          -0.00029845679154401496,
          -0.032332101359176794,
          -0.4963421455020977,
          0.24314945401337332,
          0.029070322577248286,
          -0.312369398309168,
          0.5483790572339422
        ]
      },
      {
        "children_left": [
          1,
          2,
          -1,
          -1,
          5,
          -1,
          -1
        ],
        "children_right": [
          4,
          3,
          -1,
          -1,
          6,
          -1,
          -1
        ],
        "feature": [
          3,
          0,
          -2,
          -2,
          11,
          -2,
          -2
        ],
        "threshold": [
          0.004464285797439516,
          21.5,
          -2.0,
          -2.0,
          -10.581326961517334,
          -2.0,
          -2.0
        ],
        "value": [
          -0.00029967460218075653,
          0.07405127800971698,
          0.002939949146110758,
          0.6045904469326357,
          -0.012675600109842249,
          1.3232682315260673,
          -0.18303606413516074
        ]
      },
      {
        "children_left": [
          1,
          2,
          -1,
          -1,
          5,
          -1,
          -1
        ],
        "children_right": [
          4,
          3,
          -1,
          -1,
          6,
          -1,
          -1
        ],
        "feature": [
          3,
          8,
          -2,
          -2,
          11,
          -2,
          -2
        ],
        "threshold": [
          0.0062500000931322575,
          0.7792821228504181,
          -2.0,
          -2.0,
          -10.58129072189331,
          -2.0,
          -2.0
        ],
        "value": [
          -0.0002934475302272859,
          0.061886494744875564,
          0.6075684912753249,
          -0.16558127399582728,
          -0.013998228558886452,
          1.3296998214798703,
          -0.19857571329944232
        ]
      },
      {
        "children_left": [
          1,
          2,
          -1,
          -1,
          5,
          -1,
          -1
        ],
        "children_right": [
          4,
          3,
          -1,
          -1,
          6,
          -1,
          -1
        ],
        "feature": [
          8,
          6,
          -2,
          -2,
          8,
          -2,
          -2
        ],
        "threshold": [
          0.18185414373874664,
          2.084746837615967,
          -2.0,
          -2.0,
          0.7792821228504181,
          -2.0,
          -2.0
        ],
        "value": [
          -0.0002884829323455838,
          -0.03003679886106801,
          -0.15311035115114566,
          -0.7070744095276076,
          0.02698508331014608,
          0.42948966619797924,
          -0.5450963928405862
        ]
      },
      {
        "children_left": [
          1,
          2,
          -1,
          -1,
          5,
          -1,
          -1
        ],
        "children_right": [
          4,
          3,
          -1,
          -1,
          6,
          -1,
          -1
        ],
        "feature": [
          13,
          8,
          -2,
          -2,
          12,
          -2,
          -2
        ],
        "threshold": [
          0.18730272352695465,
          0.7050330936908722,
          -2.0,
          -2.0,
          0.0029864819953218102,
          -2.0,
          -2.0
        ],
        "value": [
          -0.00028940011502207594,
          -0.008585614758607354,
          0.025699217402456297,
          -0.7299892847366699,
          0.09434508801540292,
          -0.42188181607919156,
          0.6040977199537193
        ]
      },
      {
        "children_left": [
          1,
          2,
          -1,
          -1,
          5,
          -1,
          -1
        ],
        "children_right": [
          4,
          3,
          -1,
          -1,
          6,
          -1,
          -1
        ],
        "feature": [
          11,
          4,
          -2,
          -2,
          6,
          -2,
          -2
        ],
        "threshold": [
          -1.6671335697174072,
          0.001286675047595054,
          -2.0,
          -2.0,
          1.9545453190803528,
          -2.0,
          -2.0
        ],
        "value": [
          -0.00028394738190200616,
          0.049141948113454535,
          -0.011238342064340746,
          0.8170304957952289,
          -0.01574697862326155,
          0.01791582739867437,
          -0.5737016581761809
        ]
      },
      {
        "children_left": [
          1,
          2,
          -1,
          -1,
          5,
          -1,
          -1
        ],
        "children_right": [
          4,
          3,
          -1,
          -1,
          6,
          -1,
          -1
        ],
        "feature": [
          11,
          4,
          -2,
          -2,
          15,
          -2,
          -2
        ],
        "threshold": [
          -1.6886159181594849,
          0.001286675047595054,
          -2.0,
          -2.0,
          1.7057570815086365,
          -2.0,
          -2.0
        ],
        "value": [
          -0.0002810500599942297,
          0.04737818331265312,
          -0.01000057602207952,
          0.7860480830518097,
          -0.015068401295113453,
          0.022985795596734714,
          -0.5491985898698385
        ]
      },
      {
        "children_left": [
          1,
          2,
          -1,
          -1,
          5,
          -1,
          -1
        ],
        "children_right": [
          4,
          3,
          -1,
          -1,
          6,
          -1,
          -1
        ],
        "feature": [
          3,
          2,
          -2,
          -2,
          11,
          -2,
          -2
        ],
        "threshold": [
          0.0062500000931322575,
          0.2207178696990013,
          -2.0,
          -2.0,
          -10.58129072189331,
          -2.0,
          -2.0
        ],
        "value": [
          -0.00027761954265031086,
          0.05450672070100338,
          -0.15534514707810004,
          0.5226941200861067,
          -0.012352371614902484,
          1.2016433732215417,
          -0.1809010365677869
        ]
      },
      {
        "children_left": [
          1,
          2,
          -1,
          -1,
          5,
          -1,
          -1
        ],
        "children_right": [
          4,
          3,
          -1,
          -1,
          6,
          -1,
          -1
        ],
        "feature": [
          2,
          8,
          -2,
          -2,
          9,
          -2,
          -2
        ],
        "threshold": [
          0.8181458711624146,
          0.5890340507030487,
          -2.0,
          -2.0,
          0.43767842650413513,
          -2.0,
          -2.0
        ],
        "value": [
          -0.00027174934255664495,
          0.02378353453382238,
          0.5972710418208985,
          -0.15585132866756893,
          -0.0265097623015926,
          -0.45312889710163945,
          0.22962017845452837
        ]
      },
      {
        "children_left": [
          1,
          2,
          -1,
          -1,
          5,
          -1,
          -1
        ],
        "children_right": [
          4,
          3,
          -1,
          -1,
          6,
          -1,
          -1
        ],
        "feature": [
          11,
          4,
          -2,
          -2,
          0,
          -2,
          -2
        ],
        "threshold": [
          -1.6886159181594849,
          0.001286675047595054,
          -2.0,
          -2.0,
          25.5,
          -2.0,
          -2.0
        ],
        "value": [
          -0.00027138814754814065,
          0.0439640359473214,
          -0.016149461165207258,
          0.7233954097365133,
          -0.013996425392916203,
          -0.2592578786537163,
          0.3377036238108353
        ]
      },
      {
        "children_left": [
          1,
          2,
          -1,
          -1,
          5,
          -1,
          -1
        ],
        "children_right": [
          4,
          3,
          -1,
          -1,
          6,
          -1,
          -1
        ],
        "feature": [
          13,
          4,
          -2,
          -2,
          11,
          -2,
          -2
        ],
        "threshold": [
          0.005172814475372434,
          1.5181728940660832e-05,
          -2.0,
          -2.0,
          -1.5914753675460815,
          -2.0,
          -2.0
        ],
        "value": [
          -0.00026617848762349524,
          -0.015431488042172736,
          -0.8190747022929454,
          -0.07054275747474432,
          0.03755701494367501,
          0.4257506895531395,
          -0.031599955511412516
        ]
      },
      {
        "children_left": [
          1,
          2,
          -1,
          -1,
          5,
          -1,
          -1
        ],
        "children_right": [
          4,
          3,
          -1,
          -1,
          6,
          -1,
          -1
        ],
        "feature": [
          6,
          8,
          -2,
          -2,
          10,
          -2,
          -2
        ],
        "threshold": [
          1.9545453190803528,
          0.7822119891643524,
          -2.0,
          -2.0,
          147.91302490234375,
          -2.0,
          -2.0
        ],
        "value": [
          -0.00026144447140000453,
          0.016087665445843863,
          0.2728429760530862,
          -0.5413199700495779,
          -0.03446616855923854,
          -0.5818598636098475,
          1.8905666960950775
        ]
      },
      {
        "children_left": [
          1,
          2,
          -1,
          -1,
          5,
          -1,
          -1
        ],
        "children_right": [
          4,
          3,
          -1,
          -1,
          6,
          -1,
          -1
        ],
        "feature": [
          15,
          2,
          -2,
          -2,
          6,
          -2,
          -2
        ],
        "threshold": [
          1.7057570815086365,
          0.2177879959344864,
          -2.0,
          -2.0,
          0.07042444124817848,
          -2.0,
          -2.0
        ],
        "value": [
          -0.0002610679748505548,
          0.015825234274322315,
          -0.5269345380948298,
          0.2659098399359469,
          -0.032935912282734015,
          2.816668216012922,
          -0.5374600544239436
        ]
      },
      {
        "children_left": [
          1,
          2,
          -1,
          -1,
          5,
          -1,
          -1
        ],
        "children_right": [
          4,
          3,
          -1,
          -1,
          6,
          -1,
          -1
        ],
        "feature": [
          13,
          8,
          -2,
          -2,
          3,
          -2,
          -2
        ],
        "threshold": [
          0.18730272352695465,
          0.6917251646518707,
          -2.0,
          -2.0,
          0.015178571920841932,
          -2.0,
          -2.0
        ],
        "value": [
          -0.0002598567435322585,
          -0.007004067305019672,
          0.0388062558702465,
          -0.6760927482443579,
          0.07667100169606626,
          0.4711052531111954,
          -0.4527033502841685
        ]
      },
      {
        "children_left": [
          1,
          2,
          -1,
          -1,
          5,
          -1,
          -1
        ],
        "children_right": [
          4,
          3,
          -1,
          -1,
          6,
          -1,
          -1
        ],
        "feature": [
          11,
          4,
          -2,
          -2,
          0,
          -2,
          -2
        ],
        "threshold": [
          -1.6886159181594849,
          0.002961711958050728,
          -2.0,
          -2.0,
          25.5,
          -2.0,
          -2.0
        ],
        "value": [
          -0.00025435502416177295,
          0.03979493930114357,
          0.020651070684269444,
          0.6855155567314066,
          -0.012680551167023872,
          -0.24488775954292658,
          0.3408499018632182
        ]
      },
      {
        "children_left": [
          1,
          2,
          -1,
          -1,
          5,
          -1,
          -1
        ],
        "children_right": [
          4,
          3,
          -1,
          -1,
          6,
          -1,
          -1
        ],
        "feature": [
          6,
          8,
          -2,
          -2,
          10,
          -2,
          -2
        ],
        "threshold": [
          1.9545453190803528,
          0.7792821228504181,
          -2.0,
          -2.0,
          147.91302490234375,
          -2.0,
          -2.0
        ],
        "value": [
          -0.0002487750565410496,
          0.014753034561738721,
          0.24909982091027633,
          -0.5042264726132366,
          -0.03163475028142663,
          -0.558065630044196,
          1.7297414584955384
        ]
      },
      {
        "children_left": [
          1,
          2,
          -1,
          -1,
          5,
          -1,
          -1
        ],
        "children_right": [
          4,
          3,
          -1,
          -1,
          6,
          -1,
          -1
        ],
        "feature": [
          3,
          13,
          -2,
          -2,
          8,
          -2,
          -2
        ],
        "threshold": [
          0.0062500000931322575,
          0.15609007328748703,
          -2.0,
          -2.0,
          0.6774064600467682,
          -2.0,
          -2.0
        ],
        "value": [
          -0.0002475560453252731,
          0.04540221706918646,
          0.11973169956582422,
          0.4353210271484343,
          -0.010309002255333653,
          0.000897162209243934,
          -0.7706646687582985
        ]
      },
      {
        "children_left": [
          1,
          2,
          -1,
          -1,
          5,
          -1,
          -1
        ],
        "children_right": [
          4,
          3,
          -1,
          -1,
          6,
          -1,
          -1
        ],
        "feature": [
          4,
          2,
          -2,
          -2,
          9,
          -2,
          -2
        ],
        "threshold": [
          0.4177587479352951,
          0.4109659492969513,
          -2.0,
          -2.0,
          0.6667316555976868,
          -2.0,
          -2.0
        ],
        "value": [
          -0.00024259759956558668,
          0.017429271054556498,
          -0.1593083853738537,
          0.4255962965834362,
          -0.025422010841957228,
          -0.4125081359000567,
          1.4484603165665466
        ]
      },
      {
        "children_left": [
          1,
          2,
          -1,
          -1,
          5,
          -1,
          -1
        ],
        "children_right": [
          4,
          3,
          -1,
          -1,
          6,
          -1,
          -1
        ],
        "feature": [
          0,
          11,
          -2,
          -2,
          8,
          -2,
          -2
        ],
        "threshold": [
          37.5,
          -10.581326961517334,
          -2.0,
          -2.0,
          0.5890454351902008,
          -2.0,
          -2.0
        ],
        "value": [
          -0.00024064638388422143,
          -0.009401269306817827,
          0.8543679144160223,
          -0.14226385786178594,
          0.047076060674275444,
          1.799312105472802,
          0.08796971064519729
        ]
      },
      {
        "children_left": [
          1,
          2,
          -1,
          -1,
          5,
          -1,
          -1
        ],
        "children_right": [
          4,
          3,
          -1,
          -1,
          6,
          -1,
          -1
        ],
        "feature": [
          11,
          10,
          -2,
          -2,
          0,
          -2,
          -2
        ],
        "threshold": [
          -1.6886159181594849,
          787.3528442382812,
          -2.0,
          -2.0,
          25.5,
          -2.0,
          -2.0
        ],
        "value": [
          -0.0002371731739895455,
          0.03647132616945362,
          0.6215879487792756,
          -0.03898845119173579,
          -0.011626812383274716,
          -0.2285698135091724,
          0.3075896970823457
        ]
      },
      {
        "children_left": [
          1,
          2,
          -1,
          -1,
          5,
          -1,
          -1
        ],
        "children_right": [
          4,
          3,
          -1,
          -1,
          6,
          -1,
          -1
        ],
        "feature": [
          6,
          2,
          -2,
          -2,
          9,
          -2,
          -2
        ],
        "threshold": [
          1.866523265838623,
          0.2207178696990013,
          -2.0,
          -2.0,
          0.7184031903743744,
          -2.0,
          -2.0
        ],
        "value": [
          -0.00023203401680457764,
          0.01439619659044136,
          -0.4895123273070128,
          0.242178877680601,
          -0.02681008681025157,
          -0.4426466471045817,
          6.417725203593372
        ]
      },
      {
        "children_left": [
          1,
          2,
          -1,
          -1,
          5,
          -1,
          -1
        ],
        "children_right": [
          4,
          3,
          -1,
          -1,
          6,
          -1,
          -1
        ],
        "feature": [
          11,
          10,
          -2,
          -2,
          11,
          -2,
          -2
        ],
        "threshold": [
          -1.6886159181594849,
          787.3528442382812,
          -2.0,
          -2.0,
          0.8329034745693207,
          -2.0,
          -2.0
        ],
        "value": [
          -0.0002301255298460121,
          0.0345359010551756,
          0.5816338913248886,
          -0.037901245551321475,
          -0.011017068788929586,
          -0.07204245059958463,
          -0.7490719779587608
        ]
      },
      {
        "children_left": [
          1,
          2,
          -1,
          -1,
          5,
          -1,
          -1
        ],
        "children_right": [
          4,
          3,
          -1,
          -1,
          6,
          -1,
          -1
        ],
        "feature": [
          0,
          8,
          -2,
          -2,
          4,
          -2,
          -2
        ],
        "threshold": [
          37.5,
          0.688878208398819,
          -2.0,
          -2.0,
          0.10857082903385162,
          -2.0,
          -2.0
        ],
        "value": [
          -0.0002249879564326284,
          -0.008634327591537786,
          -0.014014859630557335,
          -0.7381764827705466,
          0.04321116954227808,
          0.1296650693816148,
          2.4261250667706613
        ]
      },
      {
        "children_left": [
          1,
          2,
          -1,
          -1,
          5,
          -1,
          -1
        ],
        "children_right": [
          4,
          3,
          -1,
          -1,
          6,
          -1,
          -1
        ],
        "feature": [
          15,
          2,
          -2,
          -2,
          6,
          -2,
          -2
        ],
        "threshold": [
          1.7057570815086365,
          0.2177879959344864,
          -2.0,
          -2.0,
          0.07042444124817848,
          -2.0,
          -2.0
        ],
        "value": [
          -0.00022407832036994585,
          0.013129025007454111,
          -0.4842063063064043,
          0.22007575543159186,
          -0.02734718999049732,
          2.5270109156047,
          -0.486704825664378
        ]
      },
      {
        "children_left": [
          1,
          2,
          -1,
          -1,
          5,
          -1,
          -1
        ],
        "children_right": [
          4,
          3,
          -1,
          -1,
          6,
          -1,
          -1
        ],
        "feature": [
          12,
          2,
          -2,
          -2,
          4,
          -2,
          -2
        ],
        "threshold": [
          0.03767133131623268,
          0.42254066467285156,
          -2.0,
          -2.0,
          2.9593650651804637e-05,
          -2.0,
          -2.0
        ],
        "value": [
          -0.0002220906627912,
          0.0330462733446616,
          -0.013924365008403954,
          0.7245877540635273,
          -0.010664624050493742,
          -0.9937439062173014,
          -0.04827751138927056
        ]
      },
      {
        "children_left": [
          1,
          2,
          -1,
          -1,
          5,
          -1,
          -1
        ],
        "children_right": [
          4,
          3,
          -1,
          -1,
          6,
          -1,
          -1
        ],
        "feature": [
          0,
          8,
          -2,
          -2,
          4,
          -2,
          -2
        ],
        "threshold": [
          45.5,
          0.6897139847278595,
          -2.0,
          -2.0,
          0.10857082903385162,
          -2.0,
          -2.0
        ],
        "value": [
          -0.00021957265633070793,
          -0.007967321903649861,
          -0.006285382053207199,
          -0.6732755521279499,
          0.04470262539287202,
          0.13791641259055185,
          2.46759675812553
        ]
      },
      {
        "children_left": [
          1,
          2,
          -1,
          -1,
          5,
          -1,
          -1
        ],
        "children_right": [
          4,
          3,
          -1,
          -1,
          6,
          -1,
          -1
        ],
        "feature": [
          11,
          4,
          -2,
          -2,
          11,
          -2,
          -2
        ],
        "threshold": [
          -1.6886159181594849,
          0.002961711958050728,
          -2.0,
          -2.0,
          0.8329034745693207,
          -2.0,
          -2.0
        ],
        "value": [
          -0.00021804628350445608,
          0.03272927875558633,
          0.016450244546725484,
          0.5409978868235429,
          -0.010440696400455083,
          -0.06827607272971771,
          -0.735641417315454
        ]
      },
      {
        "children_left": [
          1,
          2,
          -1,
          -1,
          5,
          -1,
          -1
        ],
        "children_right": [
          4,
          3,
          -1,
          -1,
          6,
          -1,
          -1
        ],
        "feature": [
          6,
          2,
          -2,
          -2,
          13,
          -2,
          -2
        ],
        "threshold": [
          1.9545453190803528,
          0.2177879959344864,
          -2.0,
          -2.0,
          0.1750287413597107,
          -2.0,
          -2.0
        ],
        "value": [
          -0.00021255373028836454,
          0.01231387625555087,
          -0.46223695704566076,
          0.2033395249647137,
          -0.02641967348421186,
          -0.4695748127406873,
          6.585157562471345
        ]
      },
      {
        "children_left": [
          1,
          2,
          -1,
          -1,
          5,
          -1,
          -1
        ],
        "children_right": [
          4,
          3,
          -1,
          -1,
          6,
          -1,
          -1
        ],
        "feature": [
          0,
          3,
          -2,
          -2,
          2,
          -2,
          -2
        ],
        "threshold": [
          37.5,
          0.49910713732242584,
          -2.0,
          -2.0,
          0.4109545797109604,
          -2.0,
          -2.0
        ],
        "value": [
          -0.00021015301178056172,
          -0.008030676346772597,
          -0.10240546731607975,
          3.946942838876582,
          0.0401846339799349,
          0.07070401330049868,
          1.4026874649790093
        ]
      },
      {
        "children_left": [
          1,
          2,
          -1,
          -1,
          5,
          -1,
          -1
        ],
        "children_right": [
          4,
          3,
          -1,
          -1,
          6,
          -1,
          -1
        ],
        "feature": [
          11,
          14,
          -2,
          -2,
          0,
          -2,
          -2
        ],
        "threshold": [
          -10.581326961517334,
          0.5,
          -2.0,
          -2.0,
          37.5,
          -2.0,
          -2.0
        ],
        "value": [
          -0.0002067010522922625,
          0.1303344068378251,
          2.890923465530076,
          0.5040480865522817,
          -0.0025318607348123493,
          -0.12232893859936848,
          0.2631771202385572
        ]
      },
      {
        "children_left": [
          1,
          2,
          -1,
          -1,
          5,
          -1,
          -1
        ],
        "children_right": [
          4,
          3,
          -1,
          -1,
          6,
          -1,
          -1
        ],
        "feature": [
          15,
          2,
          -2,
          -2,
          6,
          -2,
          -2
        ],
        "threshold": [
          1.7057570815086365,
          0.19184812903404236,
          -2.0,
          -2.0,
          0.07042444124817848,
          -2.0,
          -2.0
        ],
        "value": [
          -0.00020112078732483169,
          0.011879433263631467,
          -0.5736430085552532,
          0.18636402536758892,
          -0.024739402901740492,
          2.2579147302034555,
          -0.4598488904678448
        ]
      },
      {
        "children_left": [
          1,
          2,
          -1,
          -1,
          5,
          -1,
          -1
        ],
        "children_right": [
          4,
          3,
          -1,
          -1,
          6,
          -1,
          -1
        ],
        "feature": [
          13,
          8,
          -2,
          -2,
          6,
          -2,
          -2
        ],
        "threshold": [
          0.24456817656755447,
          0.7050330936908722,
          -2.0,
          -2.0,
          0.4921181946992874,
          -2.0,
          -2.0
        ],
        "value": [
          -0.00019914545006294022,
          -0.0048516454797549805,
          0.04580318915276535,
          -0.6585799893920852,
          0.06058436056373197,
          0.46861269700877156,
          -0.29113588832303033
        ]
      },
      {
        "children_left": [
          1,
          2,
          -1,
          -1,
          5,
          -1,
          -1
        ],
        "children_right": [
          4,
          3,
          -1,
          -1,
          6,
          -1,
          -1
        ],
        "feature": [
          6,
          8,
          -2,
          -2,
          10,
          -2,
          -2
        ],
        "threshold": [
          2.084746837615967,
          0.8081518709659576,
          -2.0,
          -2.0,
          199.89524841308594,
          -2.0,
          -2.0
        ],
        "value": [
          -0.00019504790639148788,
          0.009074808153895159,
          0.1531163478624748,
          -0.5568976262749374,
          -0.03008808183464525,
          -0.5857465722960102,
          6.133210152122337
        ]
      },
      {
        "children_left": [
          1,
          2,
          -1,
          -1,
          5,
          -1,
          -1
        ],
        "children_right": [
          4,
          3,
          -1,
          -1,
          6,
          -1,
          -1
        ],
        "feature": [
          11,
          10,
          -2,
          -2,
          11,
          -2,
          -2
        ],
        "threshold": [
          -1.6886159181594849,
          787.3528442382812,
          -2.0,
          -2.0,
          0.8329034745693207,
          -2.0,
          -2.0
        ],
        "value": [
          -0.0001930495013061947,
          0.029337806014021885,
          0.4840301301546222,
          -0.03538091892911456,
          -0.009355662952603448,
          -0.056869117184664274,
          -0.7258787816964763
        ]
      },
      {
        "children_left": [
          1,
          2,
          -1,
          -1,
          5,
          -1,
          -1
        ],
        "children_right": [
          4,
          3,
          -1,
          -1,
          6,
          -1,
          -1
        ],
        "feature": [
          11,
          14,
          -2,
          -2,
          0,
          -2,
          -2
        ],
        "threshold": [
          -10.581326961517334,
          0.5,
          -2.0,
          -2.0,
          37.5,
          -2.0,
          -2.0
        ],
        "value": [
          -0.00018850320747922783,
          0.12259286997586928,
          2.5800088267567465,
          0.4606413980271445,
          -0.0023754487858086122,
          -0.11682022749924681,
          0.2514453698868045
        ]
      },
      {
        "children_left": [
          1,
          2,
          -1,
          -1,
          5,
          -1,
          -1
        ],
        "children_right": [
          4,
          3,
          -1,
          -1,
          6,
          -1,
          -1
        ],
        "feature": [
          15,
          8,
          -2,
          -2,
          6,
          -2,
          -2
        ],
        "threshold": [
          1.7057570815086365,
          0.5890340507030487,
          -2.0,
          -2.0,
          0.07042444124817848,
          -2.0,
          -2.0
        ],
        "value": [
          -0.0001832047705327726,
          0.010971813966007106,
          0.2745340737618483,
          -0.15342497741230016,
          -0.022841519579127778,
          2.021597853969682,
          -0.43878362221541983
        ]
      },
      {
        "children_left": [
          1,
          2,
          -1,
          -1,
          5,
          -1,
          -1
        ],
        "children_right": [
          4,
          3,
          -1,
          -1,
          6,
          -1,
          -1
        ],
        "feature": [
          0,
          8,
          -2,
          -2,
          4,
          -2,
          -2
        ],
        "threshold": [
          45.5,
          0.6897139847278595,
          -2.0,
          -2.0,
          0.10857082903385162,
          -2.0,
          -2.0
        ],
        "value": [
          -0.00018103387092443756,
          -0.006779473108224675,
          -0.0008516459734571166,
          -0.6404928146883283,
          0.03807735379388385,
          0.10512798862443708,
          2.0154812651759313
        ]
      },
      {
        "children_left": [
          1,
          2,
          -1,
          -1,
          5,
          -1,
          -1
        ],
        "children_right": [
          4,
          3,
          -1,
          -1,
          6,
          -1,
          -1
        ],
        "feature": [
          6,
          2,
          -2,
          -2,
          3,
          -2,
          -2
        ],
        "threshold": [
          0.4985622614622116,
          0.24473611265420914,
          -2.0,
          -2.0,
          0.49910713732242584,
          -2.0,
          -2.0
        ],
        "value": [
          -0.0001790862229523876,
          0.021541704646362424,
          -0.29918376622350257,
          0.4054022020806834,
          -0.01153900030233507,
          -0.1539477031633658,
          3.0441366927839533
        ]
      },
      {
        "children_left": [
          1,
          2,
          -1,
          -1,
          5,
          -1,
          -1
        ],
        "children_right": [
          4,
          3,
          -1,
          -1,
          6,
          -1,
          -1
        ],
        "feature": [
          13,
          2,
          -2,
          -2,
          4,
          -2,
          -2
        ],
        "threshold": [
          0.24456817656755447,
          0.2949669063091278,
          -2.0,
          -2.0,
          0.013280141167342663,
          -2.0,
          -2.0
        ],
        "value": [
          -0.0001765957856095841,
          -0.0044473430009215305,
          -0.6314974652609704,
          0.041606547490297616,
          0.055619425146925895,
          0.4926878285571208,
          -0.17594553794753523
        ]
      },
      {
        "children_left": [
          1,
          2,
          -1,
          -1,
          5,
          -1,
          -1
        ],
        "children_right": [
          4,
          3,
          -1,
          -1,
          6,
          -1,
          -1
        ],
        "feature": [
          5,
          8,
          -2,
          -2,
          6,
          -2,
          -2
        ],
        "threshold": [
          0.9726448357105255,
          0.7790587842464447,
          -2.0,
          -2.0,
          0.07042444124817848,
          -2.0,
          -2.0
        ],
        "value": [
          -0.0001729552457075504,
          0.012588725611701814,
          0.20749943237987614,
          -0.4093809355020432,
          -0.018560117096155467,
          1.6580064415633309,
          -0.2921450694676377
        ]
      },
      {
        "children_left": [
          1,
          2,
          -1,
          -1,
          5,
          -1,
          -1
        ],
        "children_right": [
          4,
          3,
          -1,
          -1,
          6,
          -1,
          -1
        ],
        "feature": [
          0,
          3,
          -2,
          -2,
          4,
          -2,
          -2
        ],
        "threshold": [
          37.5,
          0.49910713732242584,
          -2.0,
          -2.0,
          0.10857082903385162,
          -2.0,
          -2.0
        ],
        "value": [
          -0.00017003560337928232,
          -0.006928441485007412,
          -0.09058025341807158,
          3.1775836769010226,
          0.03473867245844651,
          0.1010493982695398,
          1.6177311693946528
        ]
      },
      {
        "children_left": [
          1,
          2,
          -1,
          -1,
          5,
          -1,
          -1
        ],
        "children_right": [
          4,
          3,
          -1,
          -1,
          6,
          -1,
          -1
        ],
        "feature": [
          11,
          6,
          -2,
          -2,
          10,
          -2,
          -2
        ],
        "threshold": [
          0.8329034745693207,
          0.4985622614622116,
          -2.0,
          -2.0,
          23.99928092956543,
          -2.0,
          -2.0
        ],
        "value": [
          -0.0001673014331361307,
          0.004014767541516249,
          0.27827702371482343,
          -0.12420103896272032,
          -0.055814545400581825,
          3.723323178136644,
          -0.7704876885676462
        ]
      },
      {
        "children_left": [
          1,
          2,
          -1,
          -1,
          5,
          -1,
          -1
        ],
        "children_right": [
          4,
          3,
          -1,
          -1,
          6,
          -1,
          -1
        ],
        "feature": [
          11,
          14,
          -2,
          -2,
          0,
          -2,
          -2
        ],
        "threshold": [
          -10.581326961517334,
          0.5,
          -2.0,
          -2.0,
          37.5,
          -2.0,
          -2.0
        ],
        "value": [
          -0.00016497127310506282,
          0.11023949553993351,
          2.2675234970188796,
          0.3874927841371118,
          -0.0021314630484010615,
          -0.10532579051714822,
          0.2219790928158374
        ]
      },
      {
        "children_left": [
          1,
          2,
          -1,
          -1,
          5,
          -1,
          -1
        ],
        "children_right": [
          4,
          3,
          -1,
          -1,
          6,
          -1,
          -1
        ],
        "feature": [
          11,
          6,
          -2,
          -2,
          1,
          -2,
          -2
        ],
        "threshold": [
          0.8329034745693207,
          0.4985622614622116,
          -2.0,
          -2.0,
          0.31663478910923004,
          -2.0,
          -2.0
        ],
        "value": [
          -0.00016005353572849215,
          0.0038595460196391793,
          0.26120530450091817,
          -0.11700122137515052,
          -0.05364545477245767,
          -0.7248464741382047,
          7.529050825582099
        ]
      },
      {
        "children_left": [
          1,
          2,
          -1,
          -1,
          5,
          -1,
          -1
        ],
        "children_right": [
          4,
          3,
          -1,
          -1,
          6,
          -1,
          -1
        ],
        "feature": [
          6,
          8,
          -2,
          -2,
          10,
          -2,
          -2
        ],
        "threshold": [
          2.084746837615967,
          0.8081518709659576,
          -2.0,
          -2.0,
          199.89524841308594,
          -2.0,
          -2.0
        ],
        "value": [
          -0.00015735932954280614,
          0.007911507244563378,
          0.13643196446865638,
          -0.5359332031786294,
          -0.02617749391346529,
          -0.5474298519480456,
          5.091575060754393
        ]
      },
      {
        "children_left": [
          1,
          2,
          -1,
          -1,
          5,
          -1,
          -1
        ],
        "children_right": [
          4,
          3,
          -1,
          -1,
          6,
          -1,
          -1
        ],
        "feature": [
          11,
          6,
          -2,
          -2,
          10,
          -2,
          -2
        ],
        "threshold": [
          0.8329034745693207,
          0.4985622614622116,
          -2.0,
          -2.0,
          23.99928092956543,
          -2.0,
          -2.0
        ],
        "value": [
          -0.0001558125594453692,
          0.003717080189612259,
          0.24899793220020297,
          -0.11233425726390343,
          -0.05168911078402168,
          3.0849323274799696,
          -0.7488724462384101
        ]
      },
      {
        "children_left": [
          1,
          2,
          -1,
          -1,
          5,
          -1,
          -1
        ],
        "children_right": [
          4,
          3,
          -1,
          -1,
          6,
          -1,
          -1
        ],
        "feature": [
          8,
          0,
          -2,
          -2,
          5,
          -2,
          -2
        ],
        "threshold": [
          0.821258008480072,
          36.5,
          -2.0,
          -2.0,
          0.9322445094585419,
          -2.0,
          -2.0
        ],
        "value": [
          -0.00015326712814913378,
          0.004114812925525325,
          -0.05374093689738808,
          0.39932608625474003,
          -0.04645485595687433,
          -0.7085582193665745,
          1.312195193390605
        ]
      },
      {
        "children_left": [
          1,
          2,
          -1,
          -1,
          5,
          -1,
          -1
        ],
        "children_right": [
          4,
          3,
          -1,
          -1,
          6,
          -1,
          -1
        ],
        "feature": [
          6,
          2,
          -2,
          -2,
          10,
          -2,
          -2
        ],
        "threshold": [
          2.084746837615967,
          0.4109659492969513,
          -2.0,
          -2.0,
          199.89524841308594,
          -2.0,
          -2.0
        ],
        "value": [
          -0.0001499497113780927,
          0.007504010572088917,
          -0.16059027472830023,
          0.21180213650819954,
          -0.02483211229849403,
          -0.532808495866188,
          4.388374499219065
        ]
      },
      {
        "children_left": [
          1,
          2,
          -1,
          -1,
          5,
          -1,
          -1
        ],
        "children_right": [
          4,
          3,
          -1,
          -1,
          6,
          -1,
          -1
        ],
        "feature": [
          11,
          6,
          -2,
          -2,
          10,
          -2,
          -2
        ],
        "threshold": [
          0.8230914771556854,
          0.4985622614622116,
          -2.0,
          -2.0,
          23.99928092956543,
          -2.0,
          -2.0
        ],
        "value": [
          -0.00014814602418511698,
          0.0036194078843590784,
          0.23841248845547663,
          -0.10744398677878457,
          -0.049444731672603194,
          2.6852375911359747,
          -0.7277034984684773
        ]
      },
      {
        "children_left": [
          1,
          2,
          -1,
          -1,
          5,
          -1,
          -1
        ],
        "children_right": [
          4,
          3,
          -1,
          -1,
          6,
          -1,
          -1
        ],
        "feature": [
          2,
          5,
          -2,
          -2,
          0,
          -2,
          -2
        ],
        "threshold": [
          0.1806618571281433,
          0.9322445094585419,
          -2.0,
          -2.0,
          36.5,
          -2.0,
          -2.0
        ],
        "value": [
          -0.0001455968364084506,
          -0.044006472267736574,
          -0.7027699181077699,
          1.2039049182067667,
          0.004018136766894008,
          -0.051278957784365996,
          0.3859801986496771
        ]
      },
      {
        "children_left": [
          1,
          2,
          -1,
          -1,
          5,
          -1,
          -1
        ],
        "children_right": [
          4,
          3,
          -1,
          -1,
          6,
          -1,
          -1
        ],
        "feature": [
          11,
          14,
          -2,
          -2,
          4,
          -2,
          -2
        ],
        "threshold": [
          -10.581326961517334,
          0.5,
          -2.0,
          -2.0,
          2.5900756099872524e-06,
          -2.0,
          -2.0
        ],
        "value": [
          -0.00014247242727703392,
          0.09875786862098947,
          2.0239970962877707,
          0.32393491424625037,
          -0.0019040561100707426,
          -0.384019240440065,
          0.05244288619235119
        ]
      },
      {
        "children_left": [
          1,
          2,
          -1,
          -1,
          5,
          -1,
          -1
        ],
        "children_right": [
          4,
          3,
          -1,
          -1,
          6,
          -1,
          -1
        ],
        "feature": [
          5,
          2,
          -2,
          -2,
          6,
          -2,
          -2
        ],
        "threshold": [
          0.9816275238990784,
          0.4134780466556549,
          -2.0,
          -2.0,
          0.07042444124817848,
          -2.0,
          -2.0
        ],
        "value": [
          -0.00013868096692421669,
          0.010044729369189707,
          -0.14718713333639583,
          0.25842948830633444,
          -0.017440858582534035,
          1.547360650960327,
          -0.29775745510459894
        ]
      },
      {
        "children_left": [
          1,
          2,
          -1,
          -1,
          5,
          -1,
          -1
        ],
        "children_right": [
          4,
          3,
          -1,
          -1,
          6,
          -1,
          -1
        ],
        "feature": [
          11,
          6,
          -2,
          -2,
          1,
          -2,
          -2
        ],
        "threshold": [
          0.8329034745693207,
          0.4985622614622116,
          -2.0,
          -2.0,
          0.31663478910923004,
          -2.0,
          -2.0
        ],
        "value": [
          -0.0001365531743068514,
          0.003472286222472555,
          0.2301845731836365,
          -0.10496022586607415,
          -0.048156317451054545,
          -0.6940123483331107,
          4.751400675700348
        ]
      },
      {
        "children_left": [
          1,
          2,
          -1,
          -1,
          5,
          -1,
          -1
        ],
        "children_right": [
          4,
          3,
          -1,
          -1,
          6,
          -1,
          -1
        ],
        "feature": [
          4,
          14,
          -2,
          -2,
          9,
          -2,
          -2
        ],
        "threshold": [
          0.4177587479352951,
          2.5,
          -2.0,
          -2.0,
          0.6667316555976868,
          -2.0,
          -2.0
        ],
        "value": [
          -0.00013399947049585011,
          0.010617967783934161,
          -0.13843697317419748,
          0.31311131220486677,
          -0.01545372778936929,
          -0.3000267684766413,
          1.299202043214215
        ]
      },
      {
        "children_left": [
          1,
          2,
          -1,
          -1,
          5,
          -1,
          -1
        ],
        "children_right": [
          4,
          3,
          -1,
          -1,
          6,
          -1,
          -1
        ],
        "feature": [
          11,
          6,
          -2,
          -2,
          10,
          -2,
          -2
        ],
        "threshold": [
          0.8230914771556854,
          0.4985622614622116,
          -2.0,
          -2.0,
          23.99928092956543,
          -2.0,
          -2.0
        ],
        "value": [
          -0.0001326447136630396,
          0.003412348786509257,
          0.21888560969447438,
          -0.09903379160519792,
          -0.04651713713140682,
          2.3170411206283217,
          -0.710616053715018
        ]
      },
      {
        "children_left": [
          1,
          2,
          -1,
          -1,
          5,
          -1,
          -1
        ],
        "children_right": [
          4,
          3,
          -1,
          -1,
          6,
          -1,
          -1
        ],
        "feature": [
          8,
          0,
          -2,
          -2,
          5,
          -2,
          -2
        ],
        "threshold": [
          0.8193381428718567,
          36.5,
          -2.0,
          -2.0,
          0.9322445094585419,
          -2.0,
          -2.0
        ],
        "value": [
          -0.0001302989940548119,
          0.003820897901398962,
          -0.049141634067775504,
          0.3663280514863478,
          -0.0417523073518123,
          -0.6851600738171403,
          1.1250148599743695
        ]
      },
      {
        "children_left": [
          1,
          2,
          -1,
          -1,
          5,
          -1,
          -1
        ],
        "children_right": [
          4,
          3,
          -1,
          -1,
          6,
          -1,
          -1
        ],
        "feature": [
          2,
          13,
          -2,
          -2,
          1,
          -2,
          -2
        ],
        "threshold": [
          0.2207178696990013,
          0.6154700219631195,
          -2.0,
          -2.0,
          1.950409173965454,
          -2.0,
          -2.0
        ],
        "value": [
          -0.0001275408628266198,
          -0.032633183314318935,
          -0.6164780417529104,
          0.2392764339234297,
          0.004554372401837649,
          0.035212883257710194,
          2.5511955019841297
        ]
      },
      {
        "children_left": [
          1,
          2,
          -1,
          -1,
          5,
          -1,
          -1
        ],
        "children_right": [
          4,
          3,
          -1,
          -1,
          6,
          -1,
          -1
        ],
        "feature": [
          6,
          8,
          -2,
          -2,
          10,
          -2,
          -2
        ],
        "threshold": [
          2.084746837615967,
          0.5890340507030487,
          -2.0,
          -2.0,
          199.89524841308594,
          -2.0,
          -2.0
        ],
        "value": [
          -0.0001247712931197415,
          0.006743911480665083,
          0.1965466715107674,
          -0.15817980284284594,
          -0.02227460467389725,
          -0.5032959517692519,
          3.8637775860136054
        ]
      },
      {
        "children_left": [
          1,
          2,
          -1,
          -1,
          5,
          -1,
          -1
        ],
        "children_right": [
          4,
          3,
          -1,
          -1,
          6,
          -1,
          -1
        ],
        "feature": [
          0,
          3,
          -2,
          -2,
          4,
          -2,
          -2
        ],
        "threshold": [
          45.5,
          0.49910713732242584,
          -2.0,
          -2.0,
          0.10857082903385162,
          -2.0,
          -2.0
        ],
        "value": [
          -0.00012336493761594657,
          -0.005270823562936493,
          -0.07084155459974681,
          2.4421902101745867,
          0.029722097071468178,
          0.06786522236386545,
          1.5238164545273927
        ]
      },
      {
        "children_left": [
          1,
          2,
          -1,
          -1,
          5,
          -1,
          -1
        ],
        "children_right": [
          4,
          3,
          -1,
          -1,
          6,
          -1,
          -1
        ],
        "feature": [
          11,
          12,
          -2,
          -2,
          10,
          -2,
          -2
        ],
        "threshold": [
          0.8230914771556854,
          0.28139257431030273,
          -2.0,
          -2.0,
          23.99928092956543,
          -2.0,
          -2.0
        ],
        "value": [
          -0.00012119964362407925,
          0.0032891209362421463,
          -0.02864893786637353,
          0.5533554294063953,
          -0.04474356328723314,
          2.0829142313791524,
          -0.6998976934748286
        ]
      },
      {
        "children_left": [
          1,
          2,
          -1,
          -1,
          5,
          -1,
          -1
        ],
        "children_right": [
          4,
          3,
          -1,
          -1,
          6,
          -1,
          -1
        ],
        "feature": [
          14,
          11,
          -2,
          -2,
          8,
          -2,
          -2
        ],
        "threshold": [
          0.5,
          -10.741680145263672,
          -2.0,
          -2.0,
          0.18185414373874664,
          -2.0,
          -2.0
        ],
        "value": [
          -0.0001199912481831042,
          -0.029447447138716092,
          2.18106759968584,
          -0.33462903094520074,
          0.004821606250548891,
          -0.20199172387625605,
          0.19810689796434516
        ]
      },
      {
        "children_left": [
          1,
          2,
          -1,
          -1,
          5,
          -1,
          -1
        ],
        "children_right": [
          4,
          3,
          -1,
          -1,
          6,
          -1,
          -1
        ],
        "feature": [
          1,
          5,
          -2,
          -2,
          3,
          -2,
          -2
        ],
        "threshold": [
          0.04120183363556862,
          0.8805029690265656,
          -2.0,
          -2.0,
          0.49910713732242584,
          -2.0,
          -2.0
        ],
        "value": [
          -0.00011810888589330687,
          -0.042066664523652826,
          -0.8955585754802807,
          2.8473646586648482,
          0.0033125605280128465,
          -0.0002833333922371226,
          1.5167121462994704
        ]
      },
      {
        "children_left": [
          1,
          2,
          -1,
          -1,
          5,
          -1,
          -1
        ],
        "children_right": [
          4,
          3,
          -1,
          -1,
          6,
          -1,
          -1
        ],
        "feature": [
          11,
          6,
          -2,
          -2,
          10,
          -2,
          -2
        ],
        "threshold": [
          0.8148796558380127,
          0.4985622614622116,
          -2.0,
          -2.0,
          23.99928092956543,
          -2.0,
          -2.0
        ],
        "value": [
          -0.00011793199625232511,
          0.003175586776228942,
          0.2045992678937598,
          -0.09381451294386343,
          -0.04256772950822956,
          1.8950708301372903,
          -0.6774009946770545
        ]
      },
      {
        "children_left": [
          1,
          2,
          -1,
          -1,
          5,
          -1,
          -1
        ],
        "children_right": [
          4,
          3,
          -1,
          -1,
          6,
          -1,
          -1
        ],
        "feature": [
          2,
          5,
          -2,
          -2,
          0,
          -2,
          -2
        ],
        "threshold": [
          0.17500248551368713,
          0.9322445094585419,
          -2.0,
          -2.0,
          36.5,
          -2.0,
          -2.0
        ],
        "value": [
          -0.00011577480711566888,
          -0.04048376923087593,
          -0.6853396820089332,
          1.233404054280777,
          0.003337327625138431,
          -0.04710153387296844,
          0.32546027187713483
        ]
      },
      {
        "children_left": [
          1,
          2,
          -1,
          -1,
          5,
          -1,
          -1
        ],
        "children_right": [
          4,
          3,
          -1,
          -1,
          6,
          -1,
          -1
        ],
        "feature": [
          14,
          11,
          -2,
          -2,
          8,
          -2,
          -2
        ],
        "threshold": [
          0.5,
          -10.741680145263672,
          -2.0,
          -2.0,
          0.18185414373874664,
          -2.0,
          -2.0
        ],
        "value": [
          -0.00011323630226796864,
          -0.02830087125512689,
          2.0268304633259073,
          -0.3250495523975975,
          0.004636304431784708,
          -0.19074904845653398,
          0.18657841890129614
        ]
      },
      {
        "children_left": [
          1,
          2,
          -1,
          -1,
          5,
          -1,
          -1
        ],
        "children_right": [
          4,
          3,
          -1,
          -1,
          6,
          -1,
          -1
        ],
        "feature": [
          8,
          1,
          -2,
          -2,
          4,
          -2,
          -2
        ],
        "threshold": [
          0.7792821228504181,
          1.950409173965454,
          -2.0,
          -2.0,
          0.045588063076138496,
          -2.0,
          -2.0
        ],
        "value": [
          -0.00011127544448365905,
          0.0042279561888697885,
          0.03246949691457682,
          2.3645926405681106,
          -0.030237743837765625,
          -0.3794124016554657,
          12.631465273810035
        ]
      },
      {
        "children_left": [
          1,
          2,
          -1,
          -1,
          5,
          -1,
          -1
        ],
        "children_right": [
          4,
          3,
          -1,
          -1,
          6,
          -1,
          -1
        ],
        "feature": [
          11,
          12,
          -2,
          -2,
          1,
          -2,
          -2
        ],
        "threshold": [
          0.8329034745693207,
          0.2773665338754654,
          -2.0,
          -2.0,
          0.31663478910923004,
          -2.0,
          -2.0
        ],
        "value": [
          -0.00010883826177265638,
          0.0030185905027851263,
          -0.029759222514722482,
          0.5068307858051244,
          -0.04172287966256453,
          -0.6537364741181327,
          3.336107083505246
        ]
      },
      {
        "children_left": [
          1,
          2,
          -1,
          -1,
          5,
          -1,
          -1
        ],
        "children_right": [
          4,
          3,
          -1,
          -1,
          6,
          -1,
          -1
        ],
        "feature": [
          5,
          2,
          -2,
          -2,
          8,
          -2,
          -2
        ],
        "threshold": [
          0.9847039878368378,
          0.4134780466556549,
          -2.0,
          -2.0,
          0.8264374732971191,
          -2.0,
          -2.0
        ],
        "value": [
          -0.0001074792234760725,
          0.008188881194820419,
          -0.14371675766400893,
          0.21954314298229977,
          -0.01552178018927837,
          -0.26451011257337237,
          7.09010965244739
        ]
      },
      {
        "children_left": [
          1,
          2,
          -1,
          -1,
          5,
          -1,
          -1
        ],
        "children_right": [
          4,
          3,
          -1,
          -1,
          6,
          -1,
          -1
        ],
        "feature": [
          0,
          3,
          -2,
          -2,
          8,
          -2,
          -2
        ],
        "threshold": [
          25.5,
          0.49910713732242584,
          -2.0,
          -2.0,
          0.5890454351902008,
          -2.0,
          -2.0
        ],
        "value": [
          -0.00010584850297231262,
          -0.005661756251640375,
          -0.07844695291543974,
          2.2927013805148215,
          0.02302129872341382,
          0.9293390363099727,
          -0.015324938576862332
        ]
      },
      {
        "children_left": [
          1,
          2,
          -1,
          -1,
          5,
          -1,
          -1
        ],
        "children_right": [
          4,
          3,
          -1,
          -1,
          6,
          -1,
          -1
        ],
        "feature": [
          11,
          12,
          -2,
          -2,
          10,
          -2,
          -2
        ],
        "threshold": [
          0.5327494740486145,
          0.28139257431030273,
          -2.0,
          -2.0,
          2.515292763710022,
          -2.0,
          -2.0
        ],
        "value": [
          -0.00010380071120279047,
          0.00383204542844936,
          -0.025157131579570648,
          0.7841714216412989,
          -0.03291721824710933,
          9.667651460264933,
          -0.466273860581315
        ]
      },
      {
        "children_left": [
          1,
          2,
          -1,
          -1,
          5,
          -1,
          -1
        ],
        "children_right": [
          4,
          3,
          -1,
          -1,
          6,
          -1,
          -1
        ],
        "feature": [
          6,
          1,
          -2,
          -2,
          6,
          -2,
          -2
        ],
        "threshold": [
          0.01790774054825306,
          1.6160879731178284,
          -2.0,
          -2.0,
          0.06950810179114342,
          -2.0,
          -2.0
        ],
        "value": [
          -0.00010451398463841265,
          -0.05241024622031302,
          -0.7346254777660924,
          -0.9802071272767856,
          0.002348686187219193,
          0.7032720246005624,
          -0.010916742985643477
        ]
      },
      {
        "children_left": [
          1,
          2,
          -1,
          -1,
          5,
          -1,
          -1
        ],
        "children_right": [
          4,
          3,
          -1,
          -1,
          6,
          -1,
          -1
        ],
        "feature": [
          6,
          8,
          -2,
          -2,
          13,
          -2,
          -2
        ],
        "threshold": [
          2.084746837615967,
          0.5890340507030487,
          -2.0,
          -2.0,
          0.03382257744669914,
          -2.0,
          -2.0
        ],
        "value": [
          -0.00010227348143625092,
          0.006004365409581933,
          0.17569464545158273,
          -0.14627975554843106,
          -0.019794700458682337,
          -0.5049200508114275,
          2.8088813605278835
        ]
      },
      {
        "children_left": [
          1,
          2,
          -1,
          -1,
          5,
          -1,
          -1
        ],
        "children_right": [
          4,
          3,
          -1,
          -1,
          6,
          -1,
          -1
        ],
        "feature": [
          0,
          2,
          -2,
          -2,
          4,
          -2,
          -2
        ],
        "threshold": [
          45.5,
          0.3102860301733017,
          -2.0,
          -2.0,
          0.10857082903385162,
          -2.0,
          -2.0
        ],
        "value": [
          -0.00010191892622165497,
          -0.0047425233368324285,
          -0.5867788319646711,
          0.010655829734176982,
          0.026804753417830788,
          0.06615714347833182,
          1.230156615592133
        ]
      },
      {
        "children_left": [
          1,
          2,
          -1,
          -1,
          5,
          -1,
          -1
        ],
        "children_right": [
          4,
          3,
          -1,
          -1,
          6,
          -1,
          -1
        ],
        "feature": [
          11,
          12,
          -2,
          -2,
          10,
          -2,
          -2
        ],
        "threshold": [
          0.5327494740486145,
          0.28139257431030273,
          -2.0,
          -2.0,
          2.515292763710022,
          -2.0,
          -2.0
        ],
        "value": [
          -0.00010049981011856852,
          0.0037137198160991083,
          -0.023341419166121327,
          0.729177630056135,
          -0.031899908813380846,
          6.851978516450312,
          -0.45761181563686165
        ]
      },
      {
        "children_left": [
          1,
          2,
          -1,
          -1,
          5,
          -1,
          -1
        ],
        "children_right": [
          4,
          3,
          -1,
          -1,
          6,
          -1,
          -1
        ],
        "feature": [
          13,
          8,
          -2,
          -2,
          11,
          -2,
          -2
        ],
        "threshold": [
          0.24456817656755447,
          0.6660430133342743,
          -2.0,
          -2.0,
          -6.936192989349365,
          -2.0,
          -2.0
        ],
        "value": [
          -0.00010046880725977528,
          -0.003138293456377447,
          0.04778844351988049,
          -0.48270607555470485,
          0.0395877916226244,
          1.5805088156680913,
          0.11192424818629348
        ]
      },
      {
        "children_left": [
          1,
          2,
          -1,
          -1,
          5,
          -1,
          -1
        ],
        "children_right": [
          4,
          3,
          -1,
          -1,
          6,
          -1,
          -1
        ],
        "feature": [
          0,
          3,
          -2,
          -2,
          4,
          -2,
          -2
        ],
        "threshold": [
          25.5,
          0.49910713732242584,
          -2.0,
          -2.0,
          0.09516197070479393,
          -2.0,
          -2.0
        ],
        "value": [
          -9.878045302635222e-05,
          -0.005511419213021136,
          -0.07622021110735873,
          1.9732149555442036,
          0.022431992041472025,
          0.028294591243772607,
          1.0871984899072744
        ]
      },
      {
        "children_left": [
          1,
          2,
          -1,
          -1,
          5,
          -1,
          -1
        ],
        "children_right": [
          4,
          3,
          -1,
          -1,
          6,
          -1,
          -1
        ],
        "feature": [
          11,
          10,
          -2,
          -2,
          14,
          -2,
          -2
        ],
        "threshold": [
          -1.7779572010040283,
          787.3528442382812,
          -2.0,
          -2.0,
          0.5,
          -2.0,
          -2.0
        ],
        "value": [
          -9.693156505721662e-05,
          0.020395785938464205,
          0.43002613328569333,
          -0.06867407200520283,
          -0.00599535057605116,
          -0.5158805835716677,
          -0.023436810171947566
        ]
      },
      {
        "children_left": [
          1,
          2,
          -1,
          -1,
          5,
          -1,
          -1
        ],
        "children_right": [
          4,
          3,
          -1,
          -1,
          6,
          -1,
          -1
        ],
        "feature": [
          11,
          9,
          -2,
          -2,
          4,
          -2,
          -2
        ],
        "threshold": [
          -10.581326961517334,
          0.9379657804965973,
          -2.0,
          -2.0,
          2.5900756099872524e-06,
          -2.0,
          -2.0
        ],
        "value": [
          -9.489027908083065e-05,
          0.08029497517898186,
          1.262883856820419,
          0.1432292843059864,
          -0.0015267708343132999,
          -0.3405521387048984,
          0.04517341394873576
        ]
      },
      {
        "children_left": [
          1,
          2,
          -1,
          -1,
          5,
          -1,
          -1
        ],
        "children_right": [
          4,
          3,
          -1,
          -1,
          6,
          -1,
          -1
        ],
        "feature": [
          11,
          10,
          -2,
          -2,
          14,
          -2,
          -2
        ],
        "threshold": [
          -1.7779572010040283,
          787.3528442382812,
          -2.0,
          -2.0,
          0.5,
          -2.0,
          -2.0
        ],
        "value": [
          -9.241095054223472e-05,
          0.0199220021324727,
          0.409019924552246,
          -0.061559901093675304,
          -0.005853159597102128,
          -0.5025067978632601,
          -0.02397240646103232
        ]
      },
      {
        "children_left": [
          1,
          2,
          -1,
          -1,
          5,
          -1,
          -1
        ],
        "children_right": [
          4,
          3,
          -1,
          -1,
          6,
          -1,
          -1
        ],
        "feature": [
          0,
          3,
          -2,
          -2,
          4,
          -2,
          -2
        ],
        "threshold": [
          25.5,
          0.49910713732242584,
          -2.0,
          -2.0,
          0.13291048258543015,
          -2.0,
          -2.0
        ],
        "value": [
          -9.040116371222138e-05,
          -0.005315855678163429,
          -0.0737165863841977,
          1.8255285515350002,
          0.021661193957617068,
          0.05495651554119501,
          1.2290328520665503
        ]
      },
      {
        "children_left": [
          1,
          2,
          -1,
          -1,
          5,
          -1,
          -1
        ],
        "children_right": [
          4,
          3,
          -1,
          -1,
          6,
          -1,
          -1
        ],
        "feature": [
          5,
          10,
          -2,
          -2,
          6,
          -2,
          -2
        ],
        "threshold": [
          0.9816275238990784,
          25.601635932922363,
          -2.0,
          -2.0,
          0.07042444124817848,
          -2.0,
          -2.0
        ],
        "value": [
          -8.85583248541795e-05,
          0.008013311940807299,
          0.7183366585435964,
          0.008142241981864841,
          -0.01385408418783399,
          1.3895650450036297,
          -0.2537015761082804
        ]
      },
      {
        "children_left": [
          1,
          2,
          -1,
          -1,
          5,
          -1,
          -1
        ],
        "children_right": [
          4,
          3,
          -1,
          -1,
          6,
          -1,
          -1
        ],
        "feature": [
          11,
          12,
          -2,
          -2,
          10,
          -2,
          -2
        ],
        "threshold": [
          0.5327494740486145,
          0.28139257431030273,
          -2.0,
          -2.0,
          2.515292763710022,
          -2.0,
          -2.0
        ],
        "value": [
          -8.818840377499035e-05,
          0.0035713255683894906,
          -0.021812577930582302,
          0.6784054124003441,
          -0.03059780582436842,
          5.344976430780306,
          -0.44694981487502417
        ]
      },
      {
        "children_left": [
          1,
          2,
          -1,
          -1,
          5,
          -1,
          -1
        ],
        "children_right": [
          4,
          3,
          -1,
          -1,
          6,
          -1,
          -1
        ],
        "feature": [
          6,
          1,
          -2,
          -2,
          6,
          -2,
          -2
        ],
        "threshold": [
          0.01790774054825306,
          1.6160879731178284,
          -2.0,
          -2.0,
          0.06950810179114342,
          -2.0,
          -2.0
        ],
        "value": [
          -8.803821931351262e-05,
          -0.049256192441488544,
          -0.7162913592066144,
          -0.9517689843828253,
          0.0022180058648087375,
          0.6595053416621378,
          -0.0106073900797863
        ]
      },
      {
        "children_left": [
          1,
          2,
          -1,
          -1,
          5,
          -1,
          -1
        ],
        "children_right": [
          4,
          3,
          -1,
          -1,
          6,
          -1,
          -1
        ],
        "feature": [
          11,
          14,
          -2,
          -2,
          4,
          -2,
          -2
        ],
        "threshold": [
          -10.581326961517334,
          0.5,
          -2.0,
          -2.0,
          2.5900756099872524e-06,
          -2.0,
          -2.0
        ],
        "value": [
          -8.626332306919902e-05,
          0.07826434540944187,
          1.5542430431263534,
          0.23333430436023178,
          -0.0014818212394248687,
          -0.3287198431739566,
          0.04280318350634429
        ]
      },
      {
        "children_left": [
          1,
          2,
          -1,
          -1,
          5,
          -1,
          -1
        ],
        "children_right": [
          4,
          3,
          -1,
          -1,
          6,
          -1,
          -1
        ],
        "feature": [
          4,
          14,
          -2,
          -2,
          9,
          -2,
          -2
        ],
        "threshold": [
          0.4177587479352951,
          2.5,
          -2.0,
          -2.0,
          0.6667316555976868,
          -2.0,
          -2.0
        ],
        "value": [
          -8.395795937903177e-05,
          0.008730929459398183,
          -0.12492572406933396,
          0.260142545359149,
          -0.012643676308731477,
          -0.26023283970598143,
          1.0674238553100714
        ]
      },
      {
        "children_left": [
          1,
          2,
          -1,
          -1,
          5,
          -1,
          -1
        ],
        "children_right": [
          4,
          3,
          -1,
          -1,
          6,
          -1,
          -1
        ],
        "feature": [
          11,
          10,
          -2,
          -2,
          1,
          -2,
          -2
        ],
        "threshold": [
          -1.7779572010040283,
          787.3528442382812,
          -2.0,
          -2.0,
          1.9760931134223938,
          -2.0,
          -2.0
        ],
        "value": [
          -8.341158279945337e-05,
          0.019310623094281814,
          0.3890526911625626,
          -0.05635774127915196,
          -0.005665596708784644,
          -0.07561428986425511,
          3.3515131500031665
        ]
      },
      {
        "children_left": [
          1,
          2,
          -1,
          -1,
          5,
          -1,
          -1
        ],
        "children_right": [
          4,
          3,
          -1,
          -1,
          6,
          -1,
          -1
        ],
        "feature": [
          0,
          3,
          -2,
          -2,
          4,
          -2,
          -2
        ],
        "threshold": [
          25.5,
          0.49910713732242584,
          -2.0,
          -2.0,
          0.09516197070479393,
          -2.0,
          -2.0
        ],
        "value": [
          -8.108225487117083e-05,
          -0.005081411616557989,
          -0.07060557627598682,
          1.6177778916600263,
          0.020733401814969587,
          0.026897302869117717,
          0.968288902291637
        ]
      },
      {
        "children_left": [
          1,
          2,
          -1,
          -1,
          5,
          -1,
          -1
        ],
        "children_right": [
          4,
          3,
          -1,
          -1,
          6,
          -1,
          -1
        ],
        "feature": [
          11,
          12,
          -2,
          -2,
          10,
          -2,
          -2
        ],
        "threshold": [
          0.5327494740486145,
          0.28139257431030273,
          -2.0,
          -2.0,
          2.515292763710022,
          -2.0,
          -2.0
        ],
        "value": [
          -7.938953657268381e-05,
          0.003469197294430705,
          -0.020379967235236426,
          0.6384390654825712,
          -0.02966419982044733,
          4.526746553569153,
          -0.4387579877465825
        ]
      },
      {
        "children_left": [
          1,
          2,
          -1,
          -1,
          5,
          -1,
          -1
        ],
        "children_right": [
          4,
          3,
          -1,
          -1,
          6,
          -1,
          -1
        ],
        "feature": [
          12,
          2,
          -2,
          -2,
          12,
          -2,
          -2
        ],
        "threshold": [
          0.03767133131623268,
          0.44168728590011597,
          -2.0,
          -2.0,
          0.05290472134947777,
          -2.0,
          -2.0
        ],
        "value": [
          -7.919698575331389e-05,
          0.018138080988581242,
          -0.03862366015319676,
          0.4846824814784437,
          -0.00579737818148088,
          -0.48192710078131384,
          -0.02895467773512559
        ]
      },
      {
        "children_left": [
          1,
          2,
          -1,
          -1,
          5,
          -1,
          -1
        ],
        "children_right": [
          4,
          3,
          -1,
          -1,
          6,
          -1,
          -1
        ],
        "feature": [
          1,
          5,
          -2,
          -2,
          3,
          -2,
          -2
        ],
        "threshold": [
          0.04120183363556862,
          0.8805029690265656,
          -2.0,
          -2.0,
          0.49910713732242584,
          -2.0,
          -2.0
        ],
        "value": [
          -7.780087303930863e-05,
          -0.03555377989493391,
          -0.8663453343840792,
          2.8988532329876673,
          0.002823523244286379,
          0.0013237224845802707,
          1.0747475644502247
        ]
      },
      {
        "children_left": [
          1,
          2,
          -1,
          -1,
          5,
          -1,
          -1
        ],
        "children_right": [
          4,
          3,
          -1,
          -1,
          6,
          -1,
          -1
        ],
        "feature": [
          13,
          13,
          -2,
          -2,
          10,
          -2,
          -2
        ],
        "threshold": [
          0.959979236125946,
